svm_type c_svc
kernel_type rbf
gamma 0.0625
nr_class 2
total_sv 56
rho -0.769312
label 1 -1
nr_sv 41 15
SV
0.2307056779513835 1:3 8:1 9:57 15:3 16:2 25:3 27:1 36:2 
0.2732164208412449 1:8 11:1 13:5 16:3 36:2 
0.2308592387935372 1:7 2:2 5:2 8:2 13:10 15:53 16:62 22:53 25:53 27:1 36:4 
0.2282328684098731 1:28 13:1 15:1 16:18 25:2 36:1 
0.2305962818333541 1:7 2:3 8:1 9:21 13:1 15:12 16:1 17:19 22:1 25:12 27:2 36:2 39:1 
0.230123441482061 16:158 
0.2307163113654267 1:22 4:5 11:1 13:24 16:39 17:5 18:1 20:1 22:6 25:1 27:7 29:1 36:2 
0.230589958456669 1:12 13:3 16:1 17:14 29:1 33:1 36:1 
0.2309084053024152 1:11 2:2 11:1 13:1 15:33 16:14 25:33 26:1 27:3 36:3 
0.230538027460892 1:7 9:2 11:9 13:11 16:24 22:10 25:10 27:9 36:5 
0.230434020460323 1:16 2:6 4:2 9:6 11:2 13:1 15:3 16:22 17:22 22:13 25:5 36:4 
0.2310721506105683 1:10 9:5 13:9 16:18 17:7 27:9 
0.2304736361615354 1:5 9:15 15:89 25:89 27:3 36:3 
0.2307163113654268 1:99 2:99 8:5 16:19 20:1 22:1 25:7 27:1 38:1 
0.232410373398133 1:3 2:3 5:11 
0.2334412149231066 13:11 
0.2307400160926719 1:102 9:13 13:3 16:2 17:10 25:2 29:3 
0.2305962818333542 1:30 16:39 36:36 
0.2307163113654267 1:42 13:42 16:41 18:42 
0.2310721538364395 1:5 2:1 13:1 15:49 16:8 22:64 25:49 27:1 36:1 
0.2303709698598512 1:38 2:33 5:18 13:2 15:4 16:1 17:16 18:18 25:4 36:4 38:1 
0.2304340204603231 1:11 2:9 4:9 13:9 16:36 18:9 25:9 
1 1:1 16:1 25:1 
0.2287177932989621 1:10 13:2 15:1 16:7 17:5 20:2 29:2 36:1 
0.2309784791097103 17:499 
0.2306515623671718 1:21 4:1 13:1 15:1 16:3 17:15 22:2 25:1 27:2 33:5 36:1 
0.2307931293975593 1:32 4:1 16:95 17:2 22:1 30:55 
0.2308906403353736 1:30 16:101 
0.2303709698598512 1:45 2:30 13:1 15:36 16:12 17:10 36:3 38:1 39:2 
0.2306698665949472 1:17 16:46 27:17 
0.2308842906590636 1:39 11:21 15:12 16:50 25:12 27:1 36:1 38:1 
0.2307163113654267 1:9 2:9 4:2 8:1 13:9 15:48 16:39 22:2 25:2 27:2 36:2 
0.238456472090979 1:9 15:2 16:8 22:8 25:3 
0.2308991027791724 1:31 9:2 11:2 13:2 16:7 17:169 22:3 25:1 33:1 36:2 
0.2307698891971637 1:37 16:36 27:31 36:17 
0.3183812165169205 16:5 
0.2308592387935373 1:7 2:1 11:12 15:28 17:16 25:28 27:8 33:3 36:8 
0.2306136688014124 1:14 9:8 16:6 
0.2283753371148492 1:20 16:19 
1 16:3 
0.2307056779513835 1:6 2:19 9:46 13:1 16:1 
-1 1:3 2:3 11:1 13:2 15:2 16:1 25:2 
-1 1:2 2:3 5:1 8:1 13:1 15:2 17:31 25:2 
-0.7452955065694148 2:1 6:1 11:1 16:1 36:1 39:1 
-1 1:30 2:30 4:1 8:1 13:10 15:32 16:25 22:1 25:1 27:1 36:1 
-0.3047465886515894 1:1 4:1 5:1 13:1 16:1 25:1 29:1 33:1 
-1 1:1 2:1 17:15 
-0.8103742760213513 27:1 
-1 1:6 2:5 5:3 11:1 13:3 15:5 16:6 17:4 22:3 25:3 
-1 1:2 4:2 6:2 11:2 16:2 20:2 
-0.9218911343013386 1:1 5:1 16:1 
-0.009963165501735666 1:1 2:1 4:1 5:1 8:1 13:1 15:1 16:1 17:1 18:1 25:1 27:1 
-0.377310999079251 1:1 2:1 4:1 5:1 8:1 11:1 13:1 15:1 16:1 17:1 18:1 20:1 22:1 25:1 27:1 29:1 36:1 
-0.4279902113960705 1:2 2:1 8:1 11:1 13:1 15:1 16:2 25:1 27:1 
-1 1:7 2:2 4:2 5:2 6:1 8:1 11:1 13:2 15:5 16:4 18:2 20:3 22:7 25:6 26:1 27:2 36:2 
-0.5351258569767494 1:1 4:2 22:1 25:1 29:1 
